-9.999999488928656543e-04 0.000000000000000000e+00
-1.001247132877601531e-03 0.000000000000000000e+00
-9.997596804981975262e-04 0.000000000000000000e+00
-1.002660649964368187e-03 0.000000000000000000e+00
-1.000508572798459268e-03 0.000000000000000000e+00
-9.961327034442989548e-04 0.000000000000000000e+00
-9.981806163694448373e-04 0.000000000000000000e+00
-9.970319468779230768e-04 0.000000000000000000e+00
-9.963663057459932419e-04 0.000000000000000000e+00
-9.952130804024685376e-04 0.000000000000000000e+00
-9.942716170232717993e-04 0.000000000000000000e+00
-9.902840974702798067e-04 0.000000000000000000e+00
-9.937976979446816895e-04 0.000000000000000000e+00
-9.935126745240739632e-04 0.000000000000000000e+00
-9.876057310539839654e-04 0.000000000000000000e+00
-9.888463973645707575e-04 0.000000000000000000e+00
-9.885078528635495455e-04 0.000000000000000000e+00
-9.856964800043555887e-04 0.000000000000000000e+00
-9.776526080729731286e-04 0.000000000000000000e+00
-9.857903579685936297e-04 0.000000000000000000e+00
-9.863433613829892740e-04 0.000000000000000000e+00
-9.794792607239670521e-04 0.000000000000000000e+00
-9.855919370047746229e-04 0.000000000000000000e+00
-9.866021213516082845e-04 0.000000000000000000e+00
-9.914803701395625418e-04 0.000000000000000000e+00
-9.879893341807133647e-04 0.000000000000000000e+00
-9.871108513953038947e-04 0.000000000000000000e+00
-9.917835867391017364e-04 0.000000000000000000e+00
-9.833516073084163766e-04 0.000000000000000000e+00
-9.867577722058253238e-04 0.000000000000000000e+00
-9.930156281055392380e-04 0.000000000000000000e+00
-9.928953743770503430e-04 0.000000000000000000e+00
-9.994303444952341419e-04 0.000000000000000000e+00
-9.951572333702677579e-04 0.000000000000000000e+00
-9.883970166361247863e-04 0.000000000000000000e+00
-9.847901167638994750e-04 0.000000000000000000e+00
-9.862823796255506138e-04 0.000000000000000000e+00
-9.869108248180171860e-04 0.000000000000000000e+00
-9.881856395532531701e-04 0.000000000000000000e+00
-9.788306189411834397e-04 0.000000000000000000e+00
-9.721837850760225823e-04 0.000000000000000000e+00
-9.684909977683221934e-04 0.000000000000000000e+00
-9.711824948156220832e-04 0.000000000000000000e+00
-9.754659346753615347e-04 0.000000000000000000e+00
-9.766887639784658549e-04 0.000000000000000000e+00
-9.818366319980899662e-04 0.000000000000000000e+00
-9.819522113558678319e-04 0.000000000000000000e+00
-9.748892358996481735e-04 0.000000000000000000e+00
-9.738088939596085394e-04 0.000000000000000000e+00
-9.723194424809841708e-04 0.000000000000000000e+00
-9.705455129794884894e-04 0.000000000000000000e+00
-9.721534459212969725e-04 0.000000000000000000e+00
-9.592337026524423976e-04 0.000000000000000000e+00
-9.663297205080790186e-04 0.000000000000000000e+00
-9.542138732847939590e-04 0.000000000000000000e+00
-9.532147118439226454e-04 0.000000000000000000e+00
-9.525430373535083385e-04 0.000000000000000000e+00
-9.526907120737951795e-04 0.000000000000000000e+00
-9.484386029496533286e-04 0.000000000000000000e+00
-9.549039753197902103e-04 0.000000000000000000e+00
-9.660025559171726318e-04 0.000000000000000000e+00
-9.642734600411437176e-04 0.000000000000000000e+00
-9.524658018201358906e-04 0.000000000000000000e+00
-9.472077540617532916e-04 0.000000000000000000e+00
-9.385713508320366223e-04 0.000000000000000000e+00
-9.411160306219441959e-04 0.000000000000000000e+00
-9.485102913795536881e-04 0.000000000000000000e+00
-9.442163432964707868e-04 0.000000000000000000e+00
-9.580612137566600107e-04 0.000000000000000000e+00
-9.640756818129364060e-04 0.000000000000000000e+00
-9.557853025843726083e-04 0.000000000000000000e+00
-9.491883990964560848e-04 0.000000000000000000e+00
-9.480532473274270100e-04 0.000000000000000000e+00
-9.508931806568274607e-04 0.000000000000000000e+00
-9.557802910864152124e-04 0.000000000000000000e+00
-9.618816662856653548e-04 0.000000000000000000e+00
-9.744515057697684989e-04 0.000000000000000000e+00
-9.630749105645776929e-04 0.000000000000000000e+00
-9.640622824759750246e-04 0.000000000000000000e+00
-9.616392201094909904e-04 0.000000000000000000e+00
-9.522418635492347705e-04 0.000000000000000000e+00
-9.498587300971350232e-04 0.000000000000000000e+00
-9.353192145994023701e-04 0.000000000000000000e+00
-9.362966431365008510e-04 0.000000000000000000e+00
-9.253123232645087690e-04 0.000000000000000000e+00
-9.232403267174201303e-04 0.000000000000000000e+00
-9.079440068580525844e-04 0.000000000000000000e+00
-9.062235546888600026e-04 0.000000000000000000e+00
-9.147150008036972505e-04 0.000000000000000000e+00
-9.097740400929308410e-04 0.000000000000000000e+00
-9.100993096951259234e-04 0.000000000000000000e+00
-9.172264476693050986e-04 0.000000000000000000e+00
-9.230889564760850433e-04 0.000000000000000000e+00
-9.306979857175145263e-04 0.000000000000000000e+00
-9.249996617511125913e-04 0.000000000000000000e+00
-9.366608610940539920e-04 0.000000000000000000e+00
-9.372716533182147858e-04 0.000000000000000000e+00
-9.440682023049617923e-04 0.000000000000000000e+00
-9.419170125856593089e-04 0.000000000000000000e+00
-9.460867475085993523e-04 0.000000000000000000e+00
-9.463029600458721128e-04 0.000000000000000000e+00
-9.417076249357333312e-04 0.000000000000000000e+00
-9.405680303257788052e-04 0.000000000000000000e+00
-9.354968931619058337e-04 0.000000000000000000e+00
-9.240346787529944662e-04 0.000000000000000000e+00
-9.364685260492707462e-04 0.000000000000000000e+00
-9.405377704203169223e-04 0.000000000000000000e+00
-9.300993395776700062e-04 0.000000000000000000e+00
-9.262657375829947987e-04 0.000000000000000000e+00
-9.219113310527363072e-04 0.000000000000000000e+00
-9.311284131624402750e-04 0.000000000000000000e+00
-9.252760494833577824e-04 0.000000000000000000e+00
-9.278811646714426892e-04 0.000000000000000000e+00
-9.277378223904777501e-04 0.000000000000000000e+00
-9.286868391669949718e-04 0.000000000000000000e+00
-9.307896079829820020e-04 0.000000000000000000e+00
-9.274355011547467161e-04 0.000000000000000000e+00
-9.290487886804415108e-04 0.000000000000000000e+00
-9.328271792929786893e-04 0.000000000000000000e+00
-9.291741250200398440e-04 0.000000000000000000e+00
-9.246921914537817181e-04 0.000000000000000000e+00
-9.259336137549332556e-04 0.000000000000000000e+00
-9.225858337434346065e-04 0.000000000000000000e+00
-9.169955621874426336e-04 0.000000000000000000e+00
-9.267786522271246946e-04 0.000000000000000000e+00
-9.264546560996374594e-04 0.000000000000000000e+00
-9.265227079598339216e-04 0.000000000000000000e+00
-9.211620596400263167e-04 0.000000000000000000e+00
-9.203982475613185646e-04 0.000000000000000000e+00
-9.231475505013192560e-04 0.000000000000000000e+00
-9.134988951307127176e-04 0.000000000000000000e+00
-9.104934456182857188e-04 0.000000000000000000e+00
-9.092318010159545572e-04 0.000000000000000000e+00
-9.092514459147653166e-04 0.000000000000000000e+00
-9.167185551228456547e-04 0.000000000000000000e+00
-9.236426198684395813e-04 0.000000000000000000e+00
-9.208520947261975877e-04 0.000000000000000000e+00
-9.278580942348760253e-04 0.000000000000000000e+00
-9.315309404501069708e-04 0.000000000000000000e+00
-9.200796457697426635e-04 0.000000000000000000e+00
-9.137745052121435058e-04 0.000000000000000000e+00
-9.125062624325316462e-04 0.000000000000000000e+00
-9.042201945419324352e-04 0.000000000000000000e+00
-8.904403372191211632e-04 0.000000000000000000e+00
-8.892267480806485477e-04 0.000000000000000000e+00
-8.903963534788468916e-04 0.000000000000000000e+00
-9.047107825329190819e-04 0.000000000000000000e+00
-9.025808786069990531e-04 0.000000000000000000e+00
-8.830049591687037227e-04 0.000000000000000000e+00
-8.897051181027769819e-04 0.000000000000000000e+00
-8.764724064962696893e-04 0.000000000000000000e+00
-8.807223260627290240e-04 0.000000000000000000e+00
-8.822211020046634867e-04 0.000000000000000000e+00
-8.814261276332515565e-04 0.000000000000000000e+00
-8.818736989775915504e-04 0.000000000000000000e+00
-8.785513670228751841e-04 0.000000000000000000e+00
-8.713581733714760580e-04 0.000000000000000000e+00
-8.759216461198047858e-04 0.000000000000000000e+00
-8.770538431674342354e-04 0.000000000000000000e+00
-8.818664107384774397e-04 0.000000000000000000e+00
-8.844525364658287724e-04 0.000000000000000000e+00
-8.799346389634020134e-04 0.000000000000000000e+00
-8.793509859383416994e-04 0.000000000000000000e+00
-8.687376848157411834e-04 0.000000000000000000e+00
-8.706561121152387849e-04 0.000000000000000000e+00
-8.750025209242168981e-04 0.000000000000000000e+00
-8.733540939226823625e-04 0.000000000000000000e+00
-8.743242636832615315e-04 0.000000000000000000e+00
-8.743807270273002471e-04 0.000000000000000000e+00
-8.607718255265855425e-04 0.000000000000000000e+00
-8.691021842318260443e-04 0.000000000000000000e+00
-8.713787297798750034e-04 0.000000000000000000e+00
-8.731938853008403131e-04 0.000000000000000000e+00
-8.666135199253080122e-04 0.000000000000000000e+00
-8.694245529880214110e-04 0.000000000000000000e+00
-8.583950726617225286e-04 0.000000000000000000e+00
-8.700421084674178976e-04 0.000000000000000000e+00
-8.636429785824727276e-04 0.000000000000000000e+00
-8.714623352597863351e-04 0.000000000000000000e+00
-8.774272649023363542e-04 0.000000000000000000e+00
-8.794157055592893065e-04 0.000000000000000000e+00
-8.718163549479706221e-04 0.000000000000000000e+00
-8.810987904925669930e-04 0.000000000000000000e+00
-8.854185554070766791e-04 0.000000000000000000e+00
-8.714294834097889315e-04 0.000000000000000000e+00
-8.730241743543663618e-04 0.000000000000000000e+00
-8.762272920172238088e-04 0.000000000000000000e+00
-8.721726585944459577e-04 0.000000000000000000e+00
-8.633965994808166572e-04 0.000000000000000000e+00
-8.654005880662394776e-04 0.000000000000000000e+00
-8.725688853156897884e-04 0.000000000000000000e+00
-8.651544583658690550e-04 0.000000000000000000e+00
-8.574925255795591041e-04 0.000000000000000000e+00
-8.653120902573484957e-04 0.000000000000000000e+00
-8.546130621801444407e-04 0.000000000000000000e+00
-8.478851992512061826e-04 0.000000000000000000e+00
-8.406918314459798465e-04 0.000000000000000000e+00
-8.477789708129627750e-04 0.000000000000000000e+00
-8.422708302511624145e-04 0.000000000000000000e+00
-8.509293363247221386e-04 0.000000000000000000e+00
-8.397954654117026178e-04 0.000000000000000000e+00
-8.453001953702179430e-04 0.000000000000000000e+00
-8.474924932274146769e-04 0.000000000000000000e+00
-8.507755378475190299e-04 0.000000000000000000e+00
-8.463693279274299213e-04 0.000000000000000000e+00
-8.489093858598471256e-04 0.000000000000000000e+00
-8.464628782850069791e-04 0.000000000000000000e+00
-8.388995422089804517e-04 0.000000000000000000e+00
-8.364876151957050497e-04 0.000000000000000000e+00
-8.436362465836966425e-04 0.000000000000000000e+00
-8.501455084853500304e-04 0.000000000000000000e+00
-8.516971439866633051e-04 0.000000000000000000e+00
-8.575689170246805423e-04 0.000000000000000000e+00
-8.657060364334534172e-04 0.000000000000000000e+00
-8.574939829838942309e-04 0.000000000000000000e+00
-8.508230740062104570e-04 0.000000000000000000e+00
-8.387134128378645253e-04 0.000000000000000000e+00
-8.319045651533337003e-04 0.000000000000000000e+00
-8.320825523591736383e-04 0.000000000000000000e+00
-8.326776005341889834e-04 0.000000000000000000e+00
-8.409028923448782535e-04 0.000000000000000000e+00
-8.386355440609182888e-04 0.000000000000000000e+00
-8.326952197392526681e-04 0.000000000000000000e+00
-8.329909083411536283e-04 0.000000000000000000e+00
-8.324522737854944026e-04 0.000000000000000000e+00
-8.317111531315249905e-04 0.000000000000000000e+00
-8.400680884114899560e-04 0.000000000000000000e+00
-8.299216497959599438e-04 0.000000000000000000e+00
-8.199835036571667939e-04 0.000000000000000000e+00
-8.203335225934909637e-04 0.000000000000000000e+00
-8.274523882497413895e-04 0.000000000000000000e+00
-8.296231148959138909e-04 0.000000000000000000e+00
-8.252064566470955573e-04 0.000000000000000000e+00
-8.297102261403073225e-04 0.000000000000000000e+00
-8.337097607230717442e-04 0.000000000000000000e+00
-8.414284510805423523e-04 0.000000000000000000e+00
-8.420651152648245090e-04 0.000000000000000000e+00
-8.419793733846781805e-04 0.000000000000000000e+00
-8.368222248830395772e-04 0.000000000000000000e+00
-8.355692225058718907e-04 0.000000000000000000e+00
-8.261778174204884896e-04 0.000000000000000000e+00
-8.332980489170324287e-04 0.000000000000000000e+00
-8.294639663829204198e-04 0.000000000000000000e+00
-8.362288113903189237e-04 0.000000000000000000e+00
-8.460196338882430486e-04 0.000000000000000000e+00
-8.390923665816573318e-04 0.000000000000000000e+00
-8.251155417211761267e-04 0.000000000000000000e+00
-8.198177397652202467e-04 0.000000000000000000e+00
-8.226445676950395027e-04 0.000000000000000000e+00
-8.203564652008687704e-04 0.000000000000000000e+00
-8.171344545159148817e-04 0.000000000000000000e+00
-8.074340879109290735e-04 0.000000000000000000e+00
-8.060913751439128866e-04 0.000000000000000000e+00
-8.076731906212051984e-04 0.000000000000000000e+00
-8.069428848864350140e-04 0.000000000000000000e+00
-8.093696618693188962e-04 0.000000000000000000e+00
-8.083496998953934674e-04 0.000000000000000000e+00
-8.081479580644183262e-04 0.000000000000000000e+00
-8.084803333431636032e-04 0.000000000000000000e+00
-8.049941844123773612e-04 0.000000000000000000e+00
-7.891161178592801407e-04 0.000000000000000000e+00
-7.956725960543823729e-04 0.000000000000000000e+00
-7.997778852805850552e-04 0.000000000000000000e+00
-8.004314362224503000e-04 0.000000000000000000e+00
-8.008319079742784495e-04 0.000000000000000000e+00
-7.968831706661618332e-04 0.000000000000000000e+00
-8.006040796951899080e-04 0.000000000000000000e+00
-8.065957162929998604e-04 0.000000000000000000e+00
-8.053265940996826239e-04 0.000000000000000000e+00
-8.064202210615479399e-04 0.000000000000000000e+00
-8.110992315417997521e-04 0.000000000000000000e+00
-8.123986514851258122e-04 0.000000000000000000e+00
-8.131487930850530080e-04 0.000000000000000000e+00
-8.087326117151573098e-04 0.000000000000000000e+00
-7.999313246725080987e-04 0.000000000000000000e+00
-8.014311015060322221e-04 0.000000000000000000e+00
-7.942743343838764691e-04 0.000000000000000000e+00
-7.962819631538844761e-04 0.000000000000000000e+00
-7.975613990107559845e-04 0.000000000000000000e+00
-7.890380747020339907e-04 0.000000000000000000e+00
-7.840418297221810138e-04 0.000000000000000000e+00
-7.809370664827204730e-04 0.000000000000000000e+00
-7.740199066245717803e-04 0.000000000000000000e+00
-7.840534527383028439e-04 0.000000000000000000e+00
-7.794265423218899253e-04 0.000000000000000000e+00
-7.900512401692909780e-04 0.000000000000000000e+00
-7.853549782457273053e-04 0.000000000000000000e+00
-7.862624918701424095e-04 0.000000000000000000e+00
-7.830494433155189143e-04 0.000000000000000000e+00
-7.925230751863217423e-04 0.000000000000000000e+00
-7.907955256090670737e-04 0.000000000000000000e+00
-7.980925339401527541e-04 0.000000000000000000e+00
-7.976239725109680401e-04 0.000000000000000000e+00
-7.920016556768134843e-04 0.000000000000000000e+00
-8.001110604778815432e-04 0.000000000000000000e+00
-8.031220185358372253e-04 0.000000000000000000e+00
-7.991238541702727063e-04 0.000000000000000000e+00
-8.060993134962296351e-04 0.000000000000000000e+00
-8.124435263389922883e-04 0.000000000000000000e+00
-8.156560231463910520e-04 0.000000000000000000e+00
-8.126632049137151549e-04 0.000000000000000000e+00
-8.228170718556401374e-04 0.000000000000000000e+00
-8.268048632078853731e-04 0.000000000000000000e+00
-8.188993922488731333e-04 0.000000000000000000e+00
-8.217406610595293310e-04 0.000000000000000000e+00
-8.155744965827018333e-04 0.000000000000000000e+00
-8.060875144985452578e-04 0.000000000000000000e+00
-7.988988744563105650e-04 0.000000000000000000e+00
-7.902063140639882521e-04 0.000000000000000000e+00
-8.040082393458647869e-04 0.000000000000000000e+00
-8.091794106244397638e-04 0.000000000000000000e+00
-8.039025582879335717e-04 0.000000000000000000e+00
-8.011783145293595266e-04 0.000000000000000000e+00
-8.001491760614413582e-04 0.000000000000000000e+00
-8.041394343354346360e-04 0.000000000000000000e+00
-7.853280327726317898e-04 0.000000000000000000e+00
-7.873820542086155602e-04 0.000000000000000000e+00
-7.890341120372118457e-04 0.000000000000000000e+00
-7.906666802183563410e-04 0.000000000000000000e+00
-8.030724747319572480e-04 0.000000000000000000e+00
-8.094890799548620005e-04 0.000000000000000000e+00
-8.130333231255720957e-04 0.000000000000000000e+00
-8.043793516582101785e-04 0.000000000000000000e+00
-7.823731896843537804e-04 0.000000000000000000e+00
-7.948252991442686897e-04 0.000000000000000000e+00
-7.851459378133841382e-04 0.000000000000000000e+00
-7.749658049338583547e-04 0.000000000000000000e+00
-7.830711328770816092e-04 0.000000000000000000e+00
-7.728671664649581358e-04 0.000000000000000000e+00
-7.764291948865429142e-04 0.000000000000000000e+00
-7.816596497017883321e-04 0.000000000000000000e+00
-7.728927902806655191e-04 0.000000000000000000e+00
-7.608112049454754302e-04 0.000000000000000000e+00
-7.648286497661642164e-04 0.000000000000000000e+00
-7.658715671771956172e-04 0.000000000000000000e+00
-7.657176656724675205e-04 0.000000000000000000e+00
-7.692266107756305085e-04 0.000000000000000000e+00
-7.660614904191751688e-04 0.000000000000000000e+00
-7.775632479172306854e-04 0.000000000000000000e+00
-7.685257012815890519e-04 0.000000000000000000e+00
-7.615681985772432012e-04 0.000000000000000000e+00
-7.618555248137641456e-04 0.000000000000000000e+00
-7.602798870582573500e-04 0.000000000000000000e+00
-7.612542842087058857e-04 0.000000000000000000e+00
-7.676725868533566593e-04 0.000000000000000000e+00
-7.630198803752617125e-04 0.000000000000000000e+00
-7.610822532931408582e-04 0.000000000000000000e+00
-7.588002583855710899e-04 0.000000000000000000e+00
-7.458751687648589772e-04 0.000000000000000000e+00
-7.397498997416568790e-04 0.000000000000000000e+00
-7.399810428964071450e-04 0.000000000000000000e+00
-7.479147828303409377e-04 0.000000000000000000e+00
-7.598446015492935296e-04 0.000000000000000000e+00
-7.618748945272170057e-04 0.000000000000000000e+00
-7.646099004915733136e-04 0.000000000000000000e+00
-7.710639624146825620e-04 0.000000000000000000e+00
-7.784468036580570070e-04 0.000000000000000000e+00
-7.736226783574484071e-04 0.000000000000000000e+00
-7.624209611296771296e-04 0.000000000000000000e+00
-7.556471200184314155e-04 0.000000000000000000e+00
-7.721129208437207568e-04 0.000000000000000000e+00
-7.728619327849121489e-04 0.000000000000000000e+00
-7.909917566762936746e-04 0.000000000000000000e+00
-7.827931407222896674e-04 0.000000000000000000e+00
-7.746710397462647614e-04 0.000000000000000000e+00
-7.797926682767417420e-04 0.000000000000000000e+00
-7.731693874729706839e-04 0.000000000000000000e+00
-7.618546415186456741e-04 0.000000000000000000e+00
-7.610405767661693752e-04 0.000000000000000000e+00
-7.611994794439407670e-04 0.000000000000000000e+00
-7.592435757850301637e-04 0.000000000000000000e+00
-7.570095467818387753e-04 0.000000000000000000e+00
-7.624588004651354023e-04 0.000000000000000000e+00
-7.584295954023743480e-04 0.000000000000000000e+00
-7.638651981982894513e-04 0.000000000000000000e+00
-7.541866846321704058e-04 0.000000000000000000e+00
-7.549285568708511687e-04 0.000000000000000000e+00
-7.451320253734008839e-04 0.000000000000000000e+00
-7.594263215196875045e-04 0.000000000000000000e+00
-7.616163165563402844e-04 0.000000000000000000e+00
-7.581663381511335098e-04 0.000000000000000000e+00
-7.620757973859092248e-04 0.000000000000000000e+00
-7.628532129542080556e-04 0.000000000000000000e+00
-7.625628467674406110e-04 0.000000000000000000e+00
-7.583128646881430544e-04 0.000000000000000000e+00
-7.618176830259842155e-04 0.000000000000000000e+00
-7.713538340744138236e-04 0.000000000000000000e+00
-7.600603114208383465e-04 0.000000000000000000e+00
-7.663500539016846087e-04 0.000000000000000000e+00
-7.594855869618024691e-04 0.000000000000000000e+00
-7.549890095994833900e-04 0.000000000000000000e+00
-7.583434381257759746e-04 0.000000000000000000e+00
-7.613869136889699334e-04 0.000000000000000000e+00
-7.491516101513798166e-04 0.000000000000000000e+00
-7.677195051477684901e-04 0.000000000000000000e+00
-7.665781155799611477e-04 0.000000000000000000e+00
-7.742265704653907834e-04 0.000000000000000000e+00
-7.754419888566582101e-04 0.000000000000000000e+00
-7.731884680867582215e-04 0.000000000000000000e+00
-7.707967956280036090e-04 0.000000000000000000e+00
-7.749059203200842419e-04 0.000000000000000000e+00
-7.720075935001224302e-04 0.000000000000000000e+00
-7.702729034914476865e-04 0.000000000000000000e+00
-7.750919452641637057e-04 0.000000000000000000e+00
-7.646268378397174390e-04 0.000000000000000000e+00
-7.611180522779707703e-04 0.000000000000000000e+00
-7.484661128534457041e-04 0.000000000000000000e+00
-7.463313261417525279e-04 0.000000000000000000e+00
-7.401943910082748115e-04 0.000000000000000000e+00
-7.415034963969232597e-04 0.000000000000000000e+00
-7.486642412580216035e-04 0.000000000000000000e+00
-7.498589775546452528e-04 0.000000000000000000e+00
-7.506127680233947753e-04 0.000000000000000000e+00
-7.561782149721810436e-04 0.000000000000000000e+00
-7.618660076316660645e-04 0.000000000000000000e+00
-7.639709902241333681e-04 0.000000000000000000e+00
-7.740857599696714889e-04 0.000000000000000000e+00
-7.678227928235224721e-04 0.000000000000000000e+00
-7.831227324844823850e-04 0.000000000000000000e+00
-7.794657972885722045e-04 0.000000000000000000e+00
-7.772698100685911191e-04 0.000000000000000000e+00
-7.800664085367904925e-04 0.000000000000000000e+00
-7.781658735903023523e-04 0.000000000000000000e+00
-7.719446461716092693e-04 0.000000000000000000e+00
-7.649129990011626886e-04 0.000000000000000000e+00
-7.661062989524137275e-04 0.000000000000000000e+00
-7.707486368693693352e-04 0.000000000000000000e+00
-7.683296675477968747e-04 0.000000000000000000e+00
-7.830973533998215191e-04 0.000000000000000000e+00
-7.710916298594395688e-04 0.000000000000000000e+00
-7.645607798663232781e-04 0.000000000000000000e+00
-7.738425085665651170e-04 0.000000000000000000e+00
-7.719297166027522640e-04 0.000000000000000000e+00
-7.701919760741777945e-04 0.000000000000000000e+00
-7.648648838366528188e-04 0.000000000000000000e+00
-7.589739782518264673e-04 0.000000000000000000e+00
-7.602983694162081989e-04 0.000000000000000000e+00
-7.653156803672150682e-04 0.000000000000000000e+00
-7.597866332105790562e-04 0.000000000000000000e+00
-7.586167822771773235e-04 0.000000000000000000e+00
-7.467846373105383384e-04 0.000000000000000000e+00
-7.439182481699875863e-04 0.000000000000000000e+00
-7.526444805029536278e-04 0.000000000000000000e+00
-7.398952609338725617e-04 0.000000000000000000e+00
-7.371462175121225096e-04 0.000000000000000000e+00
-7.384333949933419988e-04 0.000000000000000000e+00
-7.366948023376086556e-04 0.000000000000000000e+00
-7.416928434621904587e-04 0.000000000000000000e+00
-7.434832412927893210e-04 0.000000000000000000e+00
-7.390280697061291874e-04 0.000000000000000000e+00
-7.425529598949896131e-04 0.000000000000000000e+00
-7.490660337366314902e-04 0.000000000000000000e+00
-7.577992139149226404e-04 0.000000000000000000e+00
-7.586425157147684345e-04 0.000000000000000000e+00
-7.647490916331106106e-04 0.000000000000000000e+00
-7.587897947472005064e-04 0.000000000000000000e+00
-7.566053423700492327e-04 0.000000000000000000e+00
-7.667073048596821389e-04 0.000000000000000000e+00
-7.567308472090068881e-04 0.000000000000000000e+00
-7.613812334059045150e-04 0.000000000000000000e+00
-7.486179765164872792e-04 0.000000000000000000e+00
-7.587917280819282771e-04 0.000000000000000000e+00
-7.719716607934831764e-04 0.000000000000000000e+00
-7.667090562444542649e-04 0.000000000000000000e+00
-7.636482888523626195e-04 0.000000000000000000e+00
-7.547925210897796222e-04 0.000000000000000000e+00
-7.439124774112045382e-04 0.000000000000000000e+00
-7.365152502263279171e-04 0.000000000000000000e+00
-7.437106167278059428e-04 0.000000000000000000e+00
-7.342378295169163082e-04 0.000000000000000000e+00
-7.202007039805415544e-04 0.000000000000000000e+00
-7.312482646327101571e-04 0.000000000000000000e+00
-7.395921755772373899e-04 0.000000000000000000e+00
-7.305483036355457692e-04 0.000000000000000000e+00
-7.354912100907426637e-04 0.000000000000000000e+00
-7.207142754293413469e-04 0.000000000000000000e+00
-7.375625832401267509e-04 0.000000000000000000e+00
-7.343406785962839755e-04 0.000000000000000000e+00
-7.418670740162988447e-04 0.000000000000000000e+00
-7.404729367329853902e-04 0.000000000000000000e+00
-7.440384032740541588e-04 0.000000000000000000e+00
-7.407301348158231010e-04 0.000000000000000000e+00
-7.419771843696956184e-04 0.000000000000000000e+00
-7.295743969507528445e-04 0.000000000000000000e+00
-7.216117998858885768e-04 0.000000000000000000e+00
-7.255778052500498360e-04 0.000000000000000000e+00
-7.318028694670059182e-04 0.000000000000000000e+00
-7.325823304108971699e-04 0.000000000000000000e+00
-7.260382480864331547e-04 0.000000000000000000e+00
-7.305432563015922020e-04 0.000000000000000000e+00
-7.234313043487258744e-04 0.000000000000000000e+00
-7.400700308609545327e-04 0.000000000000000000e+00
-7.309677443567441125e-04 0.000000000000000000e+00
-7.275466668553954783e-04 0.000000000000000000e+00
-7.244479217812629978e-04 0.000000000000000000e+00
-7.290190943896482454e-04 0.000000000000000000e+00
-7.264685217806658452e-04 0.000000000000000000e+00
-7.408692462521648293e-04 0.000000000000000000e+00
-7.400829600127645756e-04 0.000000000000000000e+00
-7.359269198522354252e-04 0.000000000000000000e+00
-7.332354744190712438e-04 0.000000000000000000e+00
-7.428297948645623799e-04 0.000000000000000000e+00
-7.471942458967771854e-04 0.000000000000000000e+00
-7.414478619269139611e-04 0.000000000000000000e+00
-7.408946489972848123e-04 0.000000000000000000e+00
-7.412367580222779112e-04 0.000000000000000000e+00
-7.500156966177331510e-04 0.000000000000000000e+00
-7.501435196460929647e-04 0.000000000000000000e+00
-7.601770404977724630e-04 0.000000000000000000e+00
-7.492171331921679538e-04 0.000000000000000000e+00
-7.458064399120011489e-04 0.000000000000000000e+00
-7.569028323174761689e-04 0.000000000000000000e+00
-7.559762324162513925e-04 0.000000000000000000e+00
-7.530728466431093823e-04 0.000000000000000000e+00
-7.440594194879167735e-04 0.000000000000000000e+00
-7.202947970068322887e-04 0.000000000000000000e+00
-7.172364117530952718e-04 0.000000000000000000e+00
-7.254031857225293764e-04 0.000000000000000000e+00
-7.354379531692368166e-04 0.000000000000000000e+00
-7.363191666752645550e-04 0.000000000000000000e+00
-7.286722357489070281e-04 0.000000000000000000e+00
-7.149526170766006819e-04 0.000000000000000000e+00
-7.028248519447776420e-04 0.000000000000000000e+00
-7.133420370170790196e-04 0.000000000000000000e+00
-7.177032876736466052e-04 0.000000000000000000e+00
-7.113388099964194911e-04 0.000000000000000000e+00
-7.221117955808631231e-04 0.000000000000000000e+00
-7.219478944106734724e-04 0.000000000000000000e+00
-7.247360060472714293e-04 0.000000000000000000e+00
-7.201258134085523812e-04 0.000000000000000000e+00
-7.109863146098800712e-04 0.000000000000000000e+00
-7.130636872986709923e-04 0.000000000000000000e+00
-7.143980430699606700e-04 0.000000000000000000e+00
-7.130414067719609283e-04 0.000000000000000000e+00
-7.099851647497596244e-04 0.000000000000000000e+00
-7.195895312311684005e-04 0.000000000000000000e+00
-7.151342190872092856e-04 0.000000000000000000e+00
-7.157418597868743905e-04 0.000000000000000000e+00
-7.021909824158380220e-04 0.000000000000000000e+00
-6.949794429880338164e-04 0.000000000000000000e+00
-6.924633595442047799e-04 0.000000000000000000e+00
-6.865102197682439525e-04 0.000000000000000000e+00
-6.931335822659567695e-04 0.000000000000000000e+00
-6.952027261772636283e-04 0.000000000000000000e+00
-6.953369882912793917e-04 0.000000000000000000e+00
-6.849536697845704436e-04 0.000000000000000000e+00
-6.896705471158850152e-04 0.000000000000000000e+00
-6.751386252159152128e-04 0.000000000000000000e+00
-6.842684106049378833e-04 0.000000000000000000e+00
-6.873305743139603149e-04 0.000000000000000000e+00
-6.892943278037955189e-04 0.000000000000000000e+00
-6.781233591382606739e-04 0.000000000000000000e+00
-6.809428518243029619e-04 0.000000000000000000e+00
-6.905049532133358337e-04 0.000000000000000000e+00
-7.060025514454106640e-04 0.000000000000000000e+00
-6.972030613671873454e-04 0.000000000000000000e+00
-6.927928263130581424e-04 0.000000000000000000e+00
-7.018003059616977459e-04 0.000000000000000000e+00
-7.008007284683725503e-04 0.000000000000000000e+00
-6.976996401754122223e-04 0.000000000000000000e+00
-6.817004048725045905e-04 0.000000000000000000e+00
-6.798261791043874822e-04 0.000000000000000000e+00
-6.814266097120349336e-04 0.000000000000000000e+00
-6.822751771533282304e-04 0.000000000000000000e+00
-6.866232845596964736e-04 0.000000000000000000e+00
-6.908323397586526920e-04 0.000000000000000000e+00
-6.725150308926074226e-04 0.000000000000000000e+00
-6.683550999039512483e-04 0.000000000000000000e+00
-6.388485239766463798e-04 0.000000000000000000e+00
-6.368971924627587133e-04 0.000000000000000000e+00
-6.348965240894227126e-04 0.000000000000000000e+00
-6.366653361284360831e-04 0.000000000000000000e+00
-6.357510769524208271e-04 0.000000000000000000e+00
-6.406989325476877091e-04 0.000000000000000000e+00
-6.469217776506190924e-04 0.000000000000000000e+00
-6.640376769081379662e-04 0.000000000000000000e+00
-6.663812324166821068e-04 0.000000000000000000e+00
-6.660316441205203558e-04 0.000000000000000000e+00
-6.600711244232457166e-04 0.000000000000000000e+00
-6.575088559736736761e-04 0.000000000000000000e+00
-6.587859469166886710e-04 0.000000000000000000e+00
-6.552648496181121040e-04 0.000000000000000000e+00
-6.399595005479329123e-04 0.000000000000000000e+00
-6.460123426775345222e-04 0.000000000000000000e+00
-6.493494401749987923e-04 0.000000000000000000e+00
-6.635078972114342999e-04 0.000000000000000000e+00
-6.589145934868957232e-04 0.000000000000000000e+00
-6.642021258511567744e-04 0.000000000000000000e+00
-6.639913310633373950e-04 0.000000000000000000e+00
-6.550672303842433207e-04 0.000000000000000000e+00
-6.521242352012405563e-04 0.000000000000000000e+00
-6.463911582999829972e-04 0.000000000000000000e+00
-6.393066399576387152e-04 0.000000000000000000e+00
-6.293911999730924254e-04 0.000000000000000000e+00
-6.117246555258936715e-04 0.000000000000000000e+00
-6.044117466962214665e-04 0.000000000000000000e+00
-6.120502204258264052e-04 0.000000000000000000e+00
-6.156668146047928648e-04 0.000000000000000000e+00
-6.115944683873153964e-04 0.000000000000000000e+00
-6.212893253255945009e-04 0.000000000000000000e+00
-6.146328700946961012e-04 0.000000000000000000e+00
-6.244899317916401474e-04 0.000000000000000000e+00
-6.142364892582834017e-04 0.000000000000000000e+00
-6.180276792305668078e-04 0.000000000000000000e+00
-6.085259314952692162e-04 0.000000000000000000e+00
-6.064283022149017603e-04 0.000000000000000000e+00
-6.234796825995102525e-04 0.000000000000000000e+00
-6.126286110745036506e-04 0.000000000000000000e+00
-6.118186156290730858e-04 0.000000000000000000e+00
-6.068678820776152432e-04 0.000000000000000000e+00
-6.060171530470232241e-04 0.000000000000000000e+00
-6.082823092038549314e-04 0.000000000000000000e+00
-6.131655014700483630e-04 0.000000000000000000e+00
-6.267708060347815810e-04 0.000000000000000000e+00
-6.358847173984886764e-04 0.000000000000000000e+00
-6.270306871144783710e-04 0.000000000000000000e+00
-6.140167416404106486e-04 0.000000000000000000e+00
-6.275838362806363457e-04 0.000000000000000000e+00
-6.224891675905318885e-04 0.000000000000000000e+00
-6.238136650963414711e-04 0.000000000000000000e+00
-6.191754326408850520e-04 0.000000000000000000e+00
-6.160244053577548047e-04 0.000000000000000000e+00
-6.118899107425651400e-04 0.000000000000000000e+00
-6.224084334912839602e-04 0.000000000000000000e+00
-6.094207882175808888e-04 0.000000000000000000e+00
-5.990596666104556220e-04 0.000000000000000000e+00
-5.743688340993291161e-04 0.000000000000000000e+00
-5.741419135082454113e-04 0.000000000000000000e+00
-5.725389812595412182e-04 0.000000000000000000e+00
-5.584380256590732502e-04 0.000000000000000000e+00
-5.596072770430116300e-04 0.000000000000000000e+00
-5.673308294430842074e-04 0.000000000000000000e+00
-5.593678288728710143e-04 0.000000000000000000e+00
-5.626666373780897295e-04 0.000000000000000000e+00
-5.627077850565703884e-04 0.000000000000000000e+00
-5.665668953282550126e-04 0.000000000000000000e+00
-5.722890810001814111e-04 0.000000000000000000e+00
-5.589198620212417748e-04 0.000000000000000000e+00
-5.656875652130314821e-04 0.000000000000000000e+00
-5.677238209283946109e-04 0.000000000000000000e+00
-5.630000285541395455e-04 0.000000000000000000e+00
-5.494668041248832987e-04 0.000000000000000000e+00
-5.496970908469582442e-04 0.000000000000000000e+00
-5.553145430150476436e-04 0.000000000000000000e+00
-5.741108185398970673e-04 0.000000000000000000e+00
-5.798766647753920717e-04 0.000000000000000000e+00
-5.728900427655708684e-04 0.000000000000000000e+00
-5.623192362437268730e-04 0.000000000000000000e+00
-5.477080064874359630e-04 0.000000000000000000e+00
-5.547836898359166788e-04 0.000000000000000000e+00
-5.553321883535592730e-04 0.000000000000000000e+00
-5.501978370543820704e-04 0.000000000000000000e+00
-5.458677438342262114e-04 0.000000000000000000e+00
-5.235503065690521674e-04 0.000000000000000000e+00
-5.163862080346100182e-04 0.000000000000000000e+00
-5.107979629036517874e-04 0.000000000000000000e+00
-5.258385354230753856e-04 0.000000000000000000e+00
-5.052298201508173200e-04 0.000000000000000000e+00
-5.144892376370015750e-04 0.000000000000000000e+00
-5.153059406494386310e-04 0.000000000000000000e+00
-5.429192549654073994e-04 0.000000000000000000e+00
-5.403112839628951064e-04 0.000000000000000000e+00
-5.254866789217798283e-04 0.000000000000000000e+00
-5.202564665821744544e-04 0.000000000000000000e+00
-5.254293321153998518e-04 0.000000000000000000e+00
-5.056098843361948392e-04 0.000000000000000000e+00
-5.265062100150635438e-04 0.000000000000000000e+00
-5.075443286137791641e-04 0.000000000000000000e+00
-5.017613937780881356e-04 0.000000000000000000e+00
-5.054598808728103356e-04 0.000000000000000000e+00
-4.988215754831617620e-04 0.000000000000000000e+00
-5.008322308917543837e-04 0.000000000000000000e+00
-4.982751407788118484e-04 0.000000000000000000e+00
-4.766495368127120083e-04 0.000000000000000000e+00
-4.592070639575601102e-04 0.000000000000000000e+00
-4.719910155201911448e-04 0.000000000000000000e+00
-4.909482262941554549e-04 0.000000000000000000e+00
-4.791386727827045395e-04 0.000000000000000000e+00
-4.650966701238332351e-04 0.000000000000000000e+00
-4.608871794968206668e-04 0.000000000000000000e+00
-4.484867160919589523e-04 0.000000000000000000e+00
-4.309611700222137519e-04 0.000000000000000000e+00
-4.404322910116930290e-04 0.000000000000000000e+00
-4.350317334793425868e-04 0.000000000000000000e+00
-4.416373633672628606e-04 0.000000000000000000e+00
-4.420694457101039822e-04 0.000000000000000000e+00
-4.443749109781713002e-04 0.000000000000000000e+00
-4.523457311037630806e-04 0.000000000000000000e+00
-4.327263061993826118e-04 0.000000000000000000e+00
-4.438149118976684906e-04 0.000000000000000000e+00
-4.342814906997266859e-04 0.000000000000000000e+00
-4.447270206238640661e-04 0.000000000000000000e+00
-4.358450575634878021e-04 0.000000000000000000e+00
-4.294550714443900910e-04 0.000000000000000000e+00
-4.427057099650392839e-04 0.000000000000000000e+00
-4.433842425046289628e-04 0.000000000000000000e+00
-4.412469359600027083e-04 0.000000000000000000e+00
-4.508967598500112544e-04 0.000000000000000000e+00
-4.670292746926923023e-04 0.000000000000000000e+00
-4.683126149158072632e-04 0.000000000000000000e+00
-4.413507716367760358e-04 0.000000000000000000e+00
-4.378483949681095553e-04 0.000000000000000000e+00
-4.440321902184693058e-04 0.000000000000000000e+00
-4.386705252710196051e-04 0.000000000000000000e+00
-4.619733820150255868e-04 0.000000000000000000e+00
-4.588561356472945028e-04 0.000000000000000000e+00
-4.579865574683372959e-04 0.000000000000000000e+00
-4.456905701552628428e-04 0.000000000000000000e+00
-4.239800190671998213e-04 0.000000000000000000e+00
-4.365607367201810164e-04 0.000000000000000000e+00
-4.391330155297113315e-04 0.000000000000000000e+00
-4.345633804871871738e-04 0.000000000000000000e+00
-4.196132401996660881e-04 0.000000000000000000e+00
-4.239946188129710457e-04 0.000000000000000000e+00
-4.320002852929263654e-04 0.000000000000000000e+00
-4.288848930965555133e-04 0.000000000000000000e+00
-4.356703498946944164e-04 0.000000000000000000e+00
-4.230925829517600731e-04 0.000000000000000000e+00
-4.100807580941544044e-04 0.000000000000000000e+00
-3.887650336796486515e-04 0.000000000000000000e+00
-3.840313331251920463e-04 0.000000000000000000e+00
-3.885272892288075186e-04 0.000000000000000000e+00
-3.958207782176635030e-04 0.000000000000000000e+00
-3.991250749055280265e-04 0.000000000000000000e+00
-4.007439181512699195e-04 0.000000000000000000e+00
-3.952670809376873607e-04 0.000000000000000000e+00
-3.870019789388388898e-04 0.000000000000000000e+00
-3.927509733205230614e-04 0.000000000000000000e+00
-3.874490330900855727e-04 0.000000000000000000e+00
-3.819589176907761305e-04 0.000000000000000000e+00
-3.545628158889244531e-04 0.000000000000000000e+00
-3.772813085217642157e-04 0.000000000000000000e+00
-3.645746991629541991e-04 0.000000000000000000e+00
-3.593391388767974010e-04 0.000000000000000000e+00
-3.689539839570959664e-04 0.000000000000000000e+00
-3.732228175381924564e-04 0.000000000000000000e+00
-3.888353083350266459e-04 0.000000000000000000e+00
-3.860244392172894942e-04 0.000000000000000000e+00
-4.188831501964859392e-04 0.000000000000000000e+00
-4.284582440043358843e-04 0.000000000000000000e+00
-4.277519348770184959e-04 0.000000000000000000e+00
-4.306059990436395110e-04 0.000000000000000000e+00
-4.446086950719988547e-04 0.000000000000000000e+00
-4.225635288604151908e-04 0.000000000000000000e+00
-4.153154909976586860e-04 0.000000000000000000e+00
-4.098538039281313756e-04 0.000000000000000000e+00
-4.249075773057909840e-04 0.000000000000000000e+00
-4.164285908211752866e-04 0.000000000000000000e+00
-4.183117542362424588e-04 0.000000000000000000e+00
-3.994694417481966229e-04 0.000000000000000000e+00
-3.934788251825586795e-04 0.000000000000000000e+00
-3.855529261261070621e-04 0.000000000000000000e+00
-3.644356115314313182e-04 0.000000000000000000e+00
-3.643697420963183903e-04 0.000000000000000000e+00
-3.677590649324967171e-04 0.000000000000000000e+00
-3.658592956458685806e-04 0.000000000000000000e+00
-3.468734682642906080e-04 0.000000000000000000e+00
-3.415717224467553458e-04 0.000000000000000000e+00
-3.573647102074057865e-04 0.000000000000000000e+00
-3.720680669928311799e-04 0.000000000000000000e+00
-3.828059270257282674e-04 0.000000000000000000e+00
-3.856599295160578755e-04 0.000000000000000000e+00
-3.760185171274803674e-04 0.000000000000000000e+00
-3.801776464255022538e-04 0.000000000000000000e+00
-3.810717202119034866e-04 0.000000000000000000e+00
-3.747591045161905235e-04 0.000000000000000000e+00
-3.652686001139535121e-04 0.000000000000000000e+00
-3.645949360182651065e-04 0.000000000000000000e+00
-3.738114325460186317e-04 0.000000000000000000e+00
-3.677607519677165721e-04 0.000000000000000000e+00
-3.594151609748693125e-04 0.000000000000000000e+00
-3.316652832846839899e-04 0.000000000000000000e+00
-3.313333946479292522e-04 0.000000000000000000e+00
-3.363137954040408399e-04 0.000000000000000000e+00
-3.390028418996026902e-04 0.000000000000000000e+00
-3.321326776929526018e-04 0.000000000000000000e+00
-3.285001609720503753e-04 0.000000000000000000e+00
-3.225636044852290109e-04 0.000000000000000000e+00
-3.274783334091514947e-04 0.000000000000000000e+00
-3.244296626996488395e-04 0.000000000000000000e+00
-3.194253520692474793e-04 0.000000000000000000e+00
-3.266849945123430203e-04 0.000000000000000000e+00
-3.081607997148501994e-04 0.000000000000000000e+00
-2.912071476160770552e-04 0.000000000000000000e+00
-3.135727010154243919e-04 0.000000000000000000e+00
-3.181495093032211713e-04 0.000000000000000000e+00
-3.144564263358576891e-04 0.000000000000000000e+00
-3.152915493289997016e-04 0.000000000000000000e+00
-3.073123662147473440e-04 0.000000000000000000e+00
-2.988111213566613288e-04 0.000000000000000000e+00
-2.984946770640876349e-04 0.000000000000000000e+00
-3.041218034950595741e-04 0.000000000000000000e+00
-3.047872843179487900e-04 0.000000000000000000e+00
-2.873372905698677853e-04 0.000000000000000000e+00
-2.739455642200623207e-04 0.000000000000000000e+00
-2.824758235768633587e-04 0.000000000000000000e+00
-2.996576387363633826e-04 0.000000000000000000e+00
-2.975930034333655388e-04 0.000000000000000000e+00
-3.098700683847228649e-04 0.000000000000000000e+00
-3.335096326113239562e-04 0.000000000000000000e+00
-3.250438052336473505e-04 0.000000000000000000e+00
-3.242237192649269177e-04 0.000000000000000000e+00
-3.268936695387393131e-04 0.000000000000000000e+00
-3.143207929940355482e-04 0.000000000000000000e+00
-3.059269803324447096e-04 0.000000000000000000e+00
-3.153196370765901525e-04 0.000000000000000000e+00
-3.142547800891946604e-04 0.000000000000000000e+00
-3.036616023699746929e-04 0.000000000000000000e+00
-2.869498897935395150e-04 0.000000000000000000e+00
-2.928534384013657026e-04 0.000000000000000000e+00
-2.976991408069683091e-04 0.000000000000000000e+00
-2.909861786177985257e-04 0.000000000000000000e+00
-2.820942486853740918e-04 0.000000000000000000e+00
-2.789328828367406885e-04 0.000000000000000000e+00
-2.945098300286763063e-04 0.000000000000000000e+00
-2.802751350302539824e-04 0.000000000000000000e+00
-2.829066187335027246e-04 0.000000000000000000e+00
-2.730914901464921783e-04 0.000000000000000000e+00
-2.583214431248692590e-04 0.000000000000000000e+00
-2.565546105291610104e-04 0.000000000000000000e+00
-2.431124504355150853e-04 0.000000000000000000e+00
-2.290372461558122280e-04 0.000000000000000000e+00
-2.395551527183417087e-04 0.000000000000000000e+00
-2.573741614783762359e-04 0.000000000000000000e+00
-2.571903352270453100e-04 0.000000000000000000e+00
-2.538501992316642242e-04 0.000000000000000000e+00
-2.480242566423918093e-04 0.000000000000000000e+00
-2.338301589311097574e-04 0.000000000000000000e+00
-2.353668501287599054e-04 0.000000000000000000e+00
-2.264558619866539294e-04 0.000000000000000000e+00
-2.313998511753516895e-04 0.000000000000000000e+00
-2.359242646778923010e-04 0.000000000000000000e+00
-2.515534769552488508e-04 0.000000000000000000e+00
-2.488307785221853183e-04 0.000000000000000000e+00
-2.457305465054532984e-04 0.000000000000000000e+00
-2.472292237438364609e-04 0.000000000000000000e+00
-2.353680330374153737e-04 0.000000000000000000e+00
-2.287393378174109736e-04 0.000000000000000000e+00
-2.260848045976976710e-04 0.000000000000000000e+00
-2.154115374457261489e-04 0.000000000000000000e+00
-2.082199943068217666e-04 0.000000000000000000e+00
-2.172770893550553511e-04 0.000000000000000000e+00
-2.052034296998147590e-04 0.000000000000000000e+00
-2.232282638456206832e-04 0.000000000000000000e+00
-2.182901150629652581e-04 0.000000000000000000e+00
-2.220344428154602122e-04 0.000000000000000000e+00
-2.182641335071368739e-04 0.000000000000000000e+00
-2.135575642467205700e-04 0.000000000000000000e+00
-2.189652106793951822e-04 0.000000000000000000e+00
-2.200706612079241593e-04 0.000000000000000000e+00
-2.177220419354834334e-04 0.000000000000000000e+00
-2.120694180272723623e-04 0.000000000000000000e+00
-2.039367760829492282e-04 0.000000000000000000e+00
-2.080811486496628258e-04 0.000000000000000000e+00
-1.920346924314841376e-04 0.000000000000000000e+00
-1.762530691116306924e-04 0.000000000000000000e+00
-1.633826157453687302e-04 0.000000000000000000e+00
-1.552191080010482959e-04 0.000000000000000000e+00
-1.647731623407550452e-04 0.000000000000000000e+00
-1.554314695923024177e-04 0.000000000000000000e+00
-1.588162175160858912e-04 0.000000000000000000e+00
-1.581326554476600516e-04 0.000000000000000000e+00
-1.834619729048028605e-04 0.000000000000000000e+00
-2.029087820867789542e-04 0.000000000000000000e+00
-1.779379418570939452e-04 0.000000000000000000e+00
-1.790376954117013685e-04 0.000000000000000000e+00
-1.738477749532123370e-04 0.000000000000000000e+00
-1.670554333221914347e-04 0.000000000000000000e+00
-1.466758691033141651e-04 0.000000000000000000e+00
-1.450093840445421057e-04 0.000000000000000000e+00
-1.457045717924248770e-04 0.000000000000000000e+00
-1.480148669971026064e-04 0.000000000000000000e+00
-1.627304310100661068e-04 0.000000000000000000e+00
-1.458227809407152396e-04 0.000000000000000000e+00
-1.590554324019918309e-04 0.000000000000000000e+00
-1.607969281078090815e-04 0.000000000000000000e+00
-1.747140175650518110e-04 0.000000000000000000e+00
-1.568013575899192421e-04 0.000000000000000000e+00
-1.436614281304660892e-04 0.000000000000000000e+00
-1.487629113228614768e-04 0.000000000000000000e+00
-1.747197361779468825e-04 0.000000000000000000e+00
-1.824902597261298678e-04 0.000000000000000000e+00
-1.902743725655096810e-04 0.000000000000000000e+00
-2.034787425502500129e-04 0.000000000000000000e+00
-1.999800140470830154e-04 0.000000000000000000e+00
-2.058682795101066034e-04 0.000000000000000000e+00
-2.075730254316723248e-04 0.000000000000000000e+00
-1.876482642824507717e-04 0.000000000000000000e+00
-1.918277222115115604e-04 0.000000000000000000e+00
-1.813219740214317007e-04 0.000000000000000000e+00
-1.955749703113270901e-04 0.000000000000000000e+00
-2.045467412998717776e-04 0.000000000000000000e+00
-1.930850840825964749e-04 0.000000000000000000e+00
-2.004498923228742869e-04 0.000000000000000000e+00
-2.225776789628044973e-04 0.000000000000000000e+00
-1.980647182627941238e-04 0.000000000000000000e+00
-1.929196574669535746e-04 0.000000000000000000e+00
-1.695349721209739628e-04 0.000000000000000000e+00
-1.507150226999532142e-04 0.000000000000000000e+00
-1.553021151888325509e-04 0.000000000000000000e+00
-1.686712127428130969e-04 0.000000000000000000e+00
-1.693384451848449317e-04 0.000000000000000000e+00
-1.865295119722331924e-04 0.000000000000000000e+00
-1.949610271151047366e-04 0.000000000000000000e+00
-1.777921721919105999e-04 0.000000000000000000e+00
-1.522597795110023169e-04 0.000000000000000000e+00
-1.670095563130316650e-04 0.000000000000000000e+00
-1.483659383005668216e-04 0.000000000000000000e+00
-1.612422632689545143e-04 0.000000000000000000e+00
-1.545794598078803136e-04 0.000000000000000000e+00
-1.510696438500973553e-04 0.000000000000000000e+00
-1.503290590480233239e-04 0.000000000000000000e+00
-1.618399792822329075e-04 0.000000000000000000e+00
-1.523526444306348801e-04 0.000000000000000000e+00
-1.206613495969459312e-04 0.000000000000000000e+00
-1.108265303755878213e-04 0.000000000000000000e+00
-1.115693656562867454e-04 0.000000000000000000e+00
-1.151774190977814883e-04 0.000000000000000000e+00
-1.158562393744871747e-04 0.000000000000000000e+00
-1.281677908880827479e-04 0.000000000000000000e+00
-1.501245094939311360e-04 0.000000000000000000e+00
-1.307160868202498962e-04 0.000000000000000000e+00
-1.467556355042735406e-04 0.000000000000000000e+00
-1.432433637487124495e-04 0.000000000000000000e+00
-1.618562277066501562e-04 0.000000000000000000e+00
-1.447425752457302589e-04 0.000000000000000000e+00
-1.659293008010634634e-04 0.000000000000000000e+00
-1.621229053262341225e-04 0.000000000000000000e+00
-1.481406461551197271e-04 0.000000000000000000e+00
-1.381135665748774383e-04 0.000000000000000000e+00
-1.343599901786341193e-04 0.000000000000000000e+00
-1.274691655125324266e-04 0.000000000000000000e+00
-1.310672889300789831e-04 0.000000000000000000e+00
-1.274172180272896665e-04 0.000000000000000000e+00
-1.481971940072452233e-04 0.000000000000000000e+00
-1.377389484789773939e-04 0.000000000000000000e+00
-1.422038941756802839e-04 0.000000000000000000e+00
-1.470190189844043497e-04 0.000000000000000000e+00
-1.434035649105835442e-04 0.000000000000000000e+00
-1.492271299231532765e-04 0.000000000000000000e+00
-1.394498483345765630e-04 0.000000000000000000e+00
-1.348726041259247607e-04 0.000000000000000000e+00
-1.315151740339872712e-04 0.000000000000000000e+00
-1.255207727250848510e-04 0.000000000000000000e+00
-1.169766415014927949e-04 0.000000000000000000e+00
-1.314700751244796486e-04 0.000000000000000000e+00
-1.111288231378591813e-04 0.000000000000000000e+00
-1.234160612767621734e-04 0.000000000000000000e+00
-1.178625436032085261e-04 0.000000000000000000e+00
-1.263060382421741232e-04 0.000000000000000000e+00
-1.391744740803189939e-04 0.000000000000000000e+00
-1.265285268941370366e-04 0.000000000000000000e+00
-1.416517944204706667e-04 0.000000000000000000e+00
-1.445642546972031545e-04 0.000000000000000000e+00
-1.589046047818991434e-04 0.000000000000000000e+00
-1.700310980002702106e-04 0.000000000000000000e+00
-1.731946914862617462e-04 0.000000000000000000e+00
-1.608696589003847277e-04 0.000000000000000000e+00
-1.532628883794631301e-04 0.000000000000000000e+00
-1.539697378543661776e-04 0.000000000000000000e+00
-1.301830305768188515e-04 0.000000000000000000e+00
-1.170263128076796347e-04 0.000000000000000000e+00
-1.144433980190895719e-04 0.000000000000000000e+00
-1.018692024173581943e-04 0.000000000000000000e+00
-9.245627307793180560e-05 0.000000000000000000e+00
-9.520074928729662029e-05 0.000000000000000000e+00
-9.122459270286207016e-05 0.000000000000000000e+00
-1.013064072815025456e-04 0.000000000000000000e+00
-8.890532545995145941e-05 0.000000000000000000e+00
-9.517280125824034275e-05 0.000000000000000000e+00
-9.350737293655077926e-05 0.000000000000000000e+00
-1.184916215048338996e-04 0.000000000000000000e+00
-1.071926927204037977e-04 0.000000000000000000e+00
-1.175291587610081435e-04 0.000000000000000000e+00
-1.232076137610145744e-04 0.000000000000000000e+00
-1.410769212786972264e-04 0.000000000000000000e+00
-1.450367835981491754e-04 0.000000000000000000e+00
-1.358414531435940889e-04 0.000000000000000000e+00
-1.362174918422024913e-04 0.000000000000000000e+00
-1.189311455431446920e-04 0.000000000000000000e+00
-1.151260704973898355e-04 0.000000000000000000e+00
-1.202908648704958738e-04 0.000000000000000000e+00
-1.417999458371861491e-04 0.000000000000000000e+00
-1.487554057902749796e-04 0.000000000000000000e+00
-1.429850949067333924e-04 0.000000000000000000e+00
-1.495489311174632956e-04 0.000000000000000000e+00
-1.497262984989349704e-04 0.000000000000000000e+00
-1.393960967129252845e-04 0.000000000000000000e+00
-1.235427483905797094e-04 0.000000000000000000e+00
-1.383475032854430064e-04 0.000000000000000000e+00
-1.423683601997573667e-04 0.000000000000000000e+00
-1.525164796928753480e-04 0.000000000000000000e+00
-1.263548234315831358e-04 0.000000000000000000e+00
-1.154602372597068720e-04 0.000000000000000000e+00
-1.149459299273617634e-04 0.000000000000000000e+00
-1.073682070122428843e-04 0.000000000000000000e+00
-1.054485147710287928e-04 0.000000000000000000e+00
-9.785202837756892835e-05 0.000000000000000000e+00
-1.046584124443105160e-04 0.000000000000000000e+00
